{
  "conv1.weight": {
    "shape": [
      16,
      1,
      5
    ],
    "values": [
      0.41661763191223145,
      -0.08672398328781128,
      0.14111709594726562,
      -0.31928959488868713,
      -0.12432986497879028,
      0.23958420753479004,
      0.13376343250274658,
      -0.19842827320098877,
      -0.41181179881095886,
      0.42898374795913696,
      -0.21066434681415558,
      0.026028692722320557,
      0.3620834946632385,
      0.26445841789245605,
      -0.1843196153640747,
      -0.021894752979278564,
      -0.39947760105133057,
      -0.0019853413105010986,
      -0.23738229274749756,
      -0.16378438472747803,
      -0.2590519189834595,
      0.24091726541519165,
      0.3567925691604614,
      -0.415142297744751,
      -0.11855840682983398,
      -0.13678798079490662,
      0.33174192905426025,
      -0.3413849174976349,
      0.41939598321914673,
      -0.2490079402923584,
      0.15528035163879395,
      -0.3050609827041626,
      0.18486535549163818,
      0.15474581718444824,
      -0.3828386962413788,
      0.20594537258148193,
      0.10824179649353027,
      0.30604100227355957,
      -0.12805765867233276,
      0.16937470436096191,
      -0.36546024680137634,
      0.35758841037750244,
      0.26158642768859863,
      -0.02386799454689026,
      -0.3272305130958557,
      -0.03932282328605652,
      0.30887770652770996,
      0.011582136154174805,
      0.03607049584388733,
      0.11442404985427856,
      -0.05665329098701477,
      0.4294910430908203,
      -0.20104505121707916,
      -0.43903276324272156,
      0.188526451587677,
      0.10648387670516968,
      -0.09213247895240784,
      -0.2312774360179901,
      -0.24795342981815338,
      -0.0387873649597168,
      0.26608002185821533,
      0.139867901802063,
      0.036718010902404785,
      0.2985216975212097,
      -0.21505123376846313,
      0.2106419801712036,
      -0.037244319915771484,
      0.18226289749145508,
      -0.44487836956977844,
      0.1569913625717163,
      0.21850568056106567,
      -0.12035554647445679,
      0.23257291316986084,
      0.07075518369674683,
      0.3584684133529663,
      -0.3873237371444702,
      0.2413325309753418,
      -0.33026692271232605,
      0.13673949241638184,
      0.37484920024871826
    ],
    "dtype": "float32"
  },
  "conv1.bias": {
    "shape": [
      16
    ],
    "values": [
      0.23771357536315918,
      0.294954776763916,
      -0.4014712870121002,
      0.3072237968444824,
      -0.3484049439430237,
      0.06305885314941406,
      0.025989234447479248,
      -0.08028778433799744,
      -0.05904000997543335,
      0.26105332374572754,
      0.2832733988761902,
      0.00653451681137085,
      0.4279003143310547,
      0.436400830745697,
      -0.010075598955154419,
      0.0697670578956604
    ],
    "dtype": "float32"
  },
  "conv2.weight": {
    "shape": [
      32,
      16,
      7
    ],
    "values": [
      -0.09095802903175354,
      -0.01960161328315735,
      0.048881895840168,
      0.07491844147443771,
      0.03013823926448822,
      -0.027992166578769684,
      0.020516544580459595,
      0.06507914513349533,
      0.057893507182598114,
      -0.088231660425663,
      0.03679966181516647,
      -0.05454476177692413,
      0.047896839678287506,
      -0.07367037236690521,
      0.053898684680461884,
      0.02276495099067688,
      -0.046337153762578964,
      -0.07914429157972336,
      0.030855096876621246,
      -0.06945239007472992,
      -0.08116558939218521,
      0.08679761737585068,
      -0.049021441489458084,
      -0.021106824278831482,
      -0.02589486539363861,
      0.07040781527757645,
      -0.09205158799886703,
      0.08938052505254745,
      -0.08925358206033707,
      0.09223151952028275,
      -0.08809439092874527,
      0.04017076641321182,
      -0.0776304081082344,
      -0.03372161462903023,
      0.08341365307569504,
      0.036754630506038666,
      -0.025402173399925232,
      -0.03525567427277565,
      -0.08926183730363846,
      0.06604183465242386,
      -0.07672299444675446,
      -0.018734388053417206,
      0.049436070024967194,
      -0.017381183803081512,
      0.0610894039273262,
      -0.06062247231602669,
      -0.04536747559905052,
      -0.04751559719443321,
      0.023092642426490784,
      -0.06723026931285858,
      0.0706636980175972,
      0.0529361292719841,
      0.08466523140668869,
      0.012252472341060638,
      -0.055005524307489395,
      0.012912243604660034,
      0.061190031468868256,
      -0.0023215562105178833,
      -0.09111188352108002,
      -0.026572346687316895,
      -0.023255914449691772,
      0.05749950557947159,
      0.011907003819942474,
      0.0899708941578865,
      0.05012982338666916,
      -0.07549914717674255,
      -0.0914074257016182,
      -0.002817980945110321,
      0.0770706906914711,
      -0.01706361025571823,
      -0.06265754997730255,
      0.02366584539413452,
      -0.03496694192290306,
      0.06214059144258499,
      -0.014209702610969543,
      0.01658707857131958,
      0.010910026729106903,
      -0.00786714255809784,
      -0.05683964118361473,
      0.007421039044857025,
      -0.016431361436843872,
      -0.0004058033227920532,
      0.031076736748218536,
      -0.019922874867916107,
      -0.03168623894453049,
      -0.05677463859319687,
      0.07095148414373398,
      0.06391511112451553,
      -0.026620179414749146,
      0.02596171200275421,
      0.02067575603723526,
      0.08713696151971817,
      -0.026006363332271576,
      -0.025279827415943146,
      -0.07153471559286118,
      0.08675014227628708,
      0.012079447507858276,
      0.06714462488889694,
      -0.04178019240498543,
      0.025978609919548035,
      0.09419258683919907,
      0.07654059678316116,
      -0.012813813984394073,
      0.0013807788491249084,
      -0.041806112974882126,
      -0.06615292280912399,
      -0.01621386408805847,
      -0.001357845962047577,
      0.049040697515010834,
      -0.057350825518369675,
      -0.08596587181091309,
      -0.027427978813648224,
      0.027324587106704712,
      -0.08333586901426315,
      0.07920024544000626,
      -0.03833307325839996,
      0.03184527903795242,
      0.014016605913639069,
      0.011066824197769165,
      0.07409089058637619,
      0.08270246535539627,
      -0.06264402717351913,
      -0.0819951668381691,
      0.017333626747131348,
      0.06638812273740768,
      0.02039920538663864,
      -0.06629009544849396,
      -0.0019108280539512634,
      -0.02990860491991043,
      -0.05785958468914032,
      0.08553650230169296,
      0.06593172997236252,
      -0.026519134640693665,
      0.0474875345826149,
      0.06402375549077988,
      -0.06415895372629166,
      0.08883339911699295,
      0.08993861824274063,
      -0.0467902235686779,
      0.07006045430898666,
      0.09346324950456619,
      0.0845785066485405,
      -0.008694194257259369,
      -0.09265456348657608,
      0.0550842359662056,
      0.03218904882669449,
      -0.02700801193714142,
      -0.05399932339787483,
      0.0014870911836624146,
      -0.03649647533893585,
      0.06072299927473068,
      -0.06854990124702454,
      -0.048150256276130676,
      -0.06865882873535156,
      0.0724002942442894,
      -0.04609035700559616,
      -0.08460936695337296,
      -0.07001674920320511,
      0.024485744535923004,
      -0.001054227352142334,
      0.09156379848718643,
      -0.06312772631645203,
      -0.039625708013772964,
      0.05261863023042679,
      -0.020816639065742493,
      0.02251400798559189,
      -0.013119257986545563,
      0.012981243431568146,
      0.052007950842380524,
      0.04191746562719345,
      -0.012163937091827393,
      0.0933709368109703,
      -0.06893371045589447,
      -0.032364603132009506,
      0.07146934419870377,
      0.0796487107872963,
      0.005706183612346649,
      0.08836682885885239,
      -0.03930925205349922,
      -0.06343677639961243,
      0.07170430570840836,
      0.059629566967487335,
      0.005292437970638275,
      -0.01385004073381424,
      0.004104554653167725,
      -0.000955723226070404,
      -0.0390307679772377,
      0.028414271771907806,
      0.06949018687009811,
      0.02507290244102478,
      0.05995582789182663,
      0.0521126314997673,
      -0.06918571144342422,
      0.061701856553554535,
      0.04369262605905533,
      -0.027271315455436707,
      0.06628837436437607,
      -0.06858974695205688,
      0.010617382824420929,
      0.03033716231584549,
      0.05125375837087631,
      -0.08513426780700684,
      -0.0178048238158226,
      -0.022379212081432343,
      -0.07864739745855331,
      0.010088212788105011,
      0.07696724683046341,
      -0.03253576159477234,
      0.06757833808660507,
      -0.03592822700738907,
      0.0007180273532867432,
      -0.027933023869991302,
      0.0323464497923851,
      0.05669715255498886,
      0.08746118098497391,
      0.052474431693553925,
      0.07505085319280624,
      -0.022572584450244904,
      -0.0901489406824112,
      -0.006998695433139801,
      -0.021143920719623566,
      -0.07428297400474548,
      0.04880251735448837,
      0.08126860111951828,
      0.02501174807548523,
      0.062143586575984955,
      0.08172545582056046,
      -0.031197011470794678,
      0.07289446145296097,
      -0.01982736587524414,
      -0.045980360358953476,
      -0.00794704258441925,
      0.057185836136341095,
      -0.006029598414897919,
      0.04448430985212326,
      -0.044627945870161057,
      -0.06304159760475159,
      0.07443172484636307,
      -0.043861933052539825,
      0.08176746219396591,
      -0.05603211000561714,
      0.05889382213354111,
      0.022427871823310852,
      -0.060481276363134384,
      0.02845904976129532,
      -0.07440995424985886,
      0.032141365110874176,
      0.05720428377389908,
      -0.012832380831241608,
      -0.02229459583759308,
      -0.09175951033830643,
      -0.0672108456492424,
      -0.039492081850767136,
      -0.07768665999174118,
      -0.010124936699867249,
      0.03471360355615616,
      0.02542804181575775,
      0.08439142256975174,
      0.019032083451747894,
      0.015440665185451508,
      -0.008598923683166504,
      0.0449046716094017,
      0.07304435223340988,
      -0.08742961287498474,
      0.06135440617799759,
      -0.010168716311454773,
      0.0034875720739364624,
      -0.06638991832733154,
      0.07090648263692856,
      -0.031245939433574677,
      0.020739220082759857,
      -0.0027098357677459717,
      0.04045305401086807,
      0.06152043491601944,
      -0.005435369908809662,
      -0.018204092979431152,
      -0.02483125776052475,
      -0.08494888991117477,
      -0.030939370393753052,
      -0.06618310511112213,
      -0.014382414519786835,
      -0.050392791628837585,
      0.015617892146110535,
      0.03533465415239334,
      -0.04222651571035385,
      0.021490812301635742,
      0.09210781008005142,
      -0.050485461950302124,
      0.0914578065276146,
      0.07868904620409012,
      -0.08069941401481628,
      0.0489804670214653,
      0.029541000723838806,
      -0.04742898419499397,
      0.07218923419713974,
      0.09398143738508224,
      0.004580989480018616,
      -0.00604856014251709,
      -0.02204560488462448,
      0.027992188930511475,
      -0.06990571320056915,
      0.04952090233564377,
      0.07617650181055069,
      0.01898398995399475,
      -0.07672691345214844,
      -0.0742143988609314,
      0.022997252643108368,
      -0.011830180883407593,
      -0.025089271366596222,
      0.04462587088346481,
      0.004626572132110596,
      -0.006945684552192688,
      0.04555181413888931,
      -0.08841878175735474,
      0.09047507494688034,
      0.08123578876256943,
      -0.03428163751959801,
      0.05210209637880325,
      -0.0012955963611602783,
      0.0436132475733757,
      0.06804721802473068,
      -0.03861517459154129,
      -0.0197109654545784,
      -0.03415863215923309,
      -0.0676409900188446,
      -0.059276994317770004,
      -0.05324098467826843,
      -0.07651689648628235,
      0.04869016259908676,
      0.02253035455942154,
      0.042571477591991425,
      0.04501897841691971,
      0.054816730320453644,
      0.004545338451862335,
      -0.024830922484397888,
      -0.0397154837846756,
      0.02154163271188736,
      0.08705674856901169,
      0.07787797600030899,
      -0.03547273576259613,
      0.0694824680685997,
      0.010448351502418518,
      0.08559288829565048,
      0.08571925014257431,
      -0.06409670412540436,
      0.07742374390363693,
      -0.08752059191465378,
      -0.02768440544605255,
      -0.05576319992542267,
      -0.0546855628490448,
      -0.06591753661632538,
      0.07610466331243515,
      -0.03146025538444519,
      0.08964671939611435,
      0.047611869871616364,
      -0.013899751007556915,
      0.09217417985200882,
      -0.010508999228477478,
      0.08820689469575882,
      0.027318909764289856,
      0.018081113696098328,
      -0.011523634195327759,
      0.07863115519285202,
      -0.035155873745679855,
      0.06275378912687302,
      0.03241243213415146,
      0.08680697530508041,
      -0.08028861880302429,
      -0.019926495850086212,
      0.05893260985612869,
      0.04106704145669937,
      -0.09032894670963287,
      -0.0595753937959671,
      -0.06356992572546005,
      -0.04874998331069946,
      0.02274087816476822,
      -0.06413350999355316,
      0.04928729683160782,
      0.03972101956605911,
      -0.06617345660924911,
      0.038257427513599396,
      0.07023382931947708,
      -0.038838304579257965,
      -0.05352482944726944,
      0.03858552128076553,
      0.047668538987636566,
      0.08260729163885117,
      0.012762270867824554,
      -0.011092312633991241,
      -0.08944391459226608,
      -0.00995267927646637,
      0.07933642715215683,
      0.06733570247888565,
      0.01652511954307556,
      0.003813706338405609,
      -0.018576115369796753,
      -0.05148201808333397,
      -0.059247661381959915,
      -0.0697694793343544,
      0.05859776586294174,
      0.08268662542104721,
      -0.04845653101801872,
      -0.08297599852085114,
      0.050418682396411896,
      -0.09215838462114334,
      -0.008803583681583405,
      0.05641639977693558,
      -0.06692420691251755,
      -0.03100619465112686,
      0.052675195038318634,
      0.020363502204418182,
      0.01081874966621399,
      -0.049650099128484726,
      0.04794085770845413,
      0.0065704286098480225,
      -0.030681557953357697,
      0.02854238450527191,
      -0.034263771027326584,
      0.006255291402339935,
      -0.04463738575577736,
      -0.03735483065247536,
      0.026779890060424805,
      -0.0741214007139206,
      0.0243920236825943,
      -0.010867580771446228,
      0.011164993047714233,
      -0.03962738811969757,
      -0.057363204658031464,
      0.028516769409179688,
      0.03216148167848587,
      0.07647586613893509,
      0.013951413333415985,
      0.018292367458343506,
      0.07717093080282211,
      -0.0539313443005085,
      -0.0018277540802955627,
      0.05714146047830582,
      -0.0003837868571281433,
      0.039368681609630585,
      -0.02694225311279297,
      -0.04624365270137787,
      0.027918577194213867,
      0.021741971373558044,
      -0.0037618204951286316,
      -0.05830000340938568,
      0.05396950989961624,
      -0.010842859745025635,
      0.0350005105137825,
      0.05239396542310715,
      -0.013725824654102325,
      -0.02533671259880066,
      -0.09134906530380249,
      -0.049719586968421936,
      -0.02904072403907776,
      -0.04258952662348747,
      -0.004505351185798645,
      -0.06888193637132645,
      -0.0642865002155304,
      0.0026209577918052673,
      0.03187159448862076,
      -0.022593118250370026,
      0.09135396033525467,
      -0.05740823969244957,
      0.05167628079652786,
      0.017400085926055908,
      -0.027036353945732117,
      -0.009585008025169373,
      0.04019909352064133,
      0.02506241202354431,
      0.08162475377321243,
      -0.0536653958261013,
      -0.02624482661485672,
      0.06543848663568497,
      -0.08207445591688156,
      -0.09409957379102707,
      -0.06323809176683426,
      -0.07095976918935776,
      0.03214537352323532,
      -0.0424724705517292,
      -0.04107000678777695,
      -0.03567912057042122,
      -0.05584852769970894,
      -0.010585896670818329,
      -0.002089954912662506,
      -0.04132569208741188,
      -0.010836310684680939,
      -0.06600891053676605,
      -0.08754081279039383,
      -0.04814913868904114,
      0.05681902915239334,
      0.051378317177295685,
      -0.012972429394721985,
      -0.013116970658302307,
      0.06706064194440842,
      -0.04591883718967438,
      -0.03358888626098633,
      -0.024711579084396362,
      0.03818795830011368,
      -0.0814741998910904,
      0.044607989490032196,
      0.019452683627605438,
      0.014654971659183502,
      0.06223929673433304,
      -0.0037155821919441223,
      0.08871278911828995,
      0.05479923635721207,
      0.0898805782198906,
      -0.08057239651679993,
      -0.08814447373151779,
      -0.0027400627732276917,
      -0.02598372846841812,
      -0.021752268075942993,
      -0.08045829087495804,
      0.07067083567380905,
      -0.047397680580616,
      0.07125458866357803,
      -0.03285215049982071,
      0.016301296651363373,
      -0.054758477956056595,
      0.09012558311223984,
      -0.04820692539215088,
      -0.09375277161598206,
      0.00994514673948288,
      -0.026233844459056854,
      -0.07475745677947998,
      0.056777097284793854,
      -0.07338914275169373,
      0.07992096990346909,
      0.021408334374427795,
      0.08554928749799728,
      -0.013738393783569336,
      0.020131513476371765,
      0.07584714144468307,
      -0.07352735847234726,
      0.021546274423599243,
      0.012314774096012115,
      0.06542371958494186,
      0.017878592014312744,
      0.017224401235580444,
      -0.003394089639186859,
      0.08405464142560959,
      0.027283675968647003,
      0.02557002753019333,
      -0.05555468797683716,
      -0.05582768842577934,
      -0.025197245180606842,
      -0.03573070093989372,
      0.0336470827460289,
      0.02428111433982849,
      -0.0898139625787735,
      -0.08056788891553879,
      -0.021605268120765686,
      -0.013803452253341675,
      -0.09136416763067245,
      -0.019486501812934875,
      0.024039655923843384,
      0.006163507699966431,
      0.08468983322381973,
      -0.06752833724021912,
      0.045851193368434906,
      0.04187919944524765,
      -0.045557186007499695,
      0.08220832794904709,
      0.025991544127464294,
      0.06699470430612564,
      0.0847674086689949,
      -0.004610762000083923,
      0.05838704854249954,
      0.05571403354406357,
      -0.09091125428676605,
      -0.08283605426549911,
      -0.01961858570575714,
      -0.09426020830869675,
      0.014195971190929413,
      -0.0668833926320076,
      -0.05867386236786842,
      0.0921248272061348,
      -0.055998824536800385,
      0.0483216717839241,
      0.005976267158985138,
      -0.022756658494472504,
      -0.07000143080949783,
      0.012190788984298706,
      -0.020504437386989594,
      -0.018708445131778717,
      0.07646966725587845,
      -0.015868566930294037,
      -0.08793728798627853,
      -0.03320370614528656,
      -0.07063046097755432,
      -0.09017614275217056,
      0.06480962783098221,
      -0.0634605810046196,
      -0.07754834741353989,
      0.06146518141031265,
      0.024495936930179596,
      0.0700279101729393,
      -0.06746049225330353,
      0.03778516501188278,
      0.0020728781819343567,
      -0.0667562335729599,
      0.039475180208683014,
      0.02009882777929306,
      -0.07694640010595322,
      -0.05646141245961189,
      -0.06906208395957947,
      0.0017745345830917358,
      0.06514119356870651,
      -0.03038378804922104,
      0.08146477490663528,
      -0.05561435595154762,
      0.028994232416152954,
      0.05367439240217209,
      0.03924243897199631,
      -0.09436647593975067,
      -0.07253431528806686,
      0.05484945327043533,
      0.0410359725356102,
      0.04842684417963028,
      -0.08170527219772339,
      0.029527045786380768,
      -0.05171133577823639,
      -0.021685071289539337,
      -0.06767752021551132,
      0.053655482828617096,
      -0.044836875051259995,
      -0.03402811288833618,
      0.06386590749025345,
      0.09075967222452164,
      -0.0016742795705795288,
      0.030639372766017914,
      0.05279567092657089,
      0.06753865629434586,
      0.033673785626888275,
      0.0039658695459365845,
      0.06055302172899246,
      -0.059912677854299545,
      -0.04175606369972229,
      -0.05170951038599014,
      0.0008387789130210876,
      0.07198592275381088,
      0.04675131291151047,
      0.03564853221178055,
      0.018912136554718018,
      -0.09235721081495285,
      0.031877301633358,
      0.024587921798229218,
      -0.05816685035824776,
      0.03955722600221634,
      0.03494025021791458,
      0.07012685388326645,
      0.03749120980501175,
      -0.06033525615930557,
      -0.06030808761715889,
      -0.009620994329452515,
      0.07686688750982285,
      -0.03364565968513489,
      0.05357819050550461,
      0.034439004957675934,
      0.025248996913433075,
      -0.08935101330280304,
      0.054431892931461334,
      -0.054090362042188644,
      -0.025018788874149323,
      -0.09391898661851883,
      0.02537965029478073,
      0.024568885564804077,
      0.054150111973285675,
      0.029060594737529755,
      -0.027823254466056824,
      -0.047152720391750336,
      -0.07503741979598999,
      -0.01420564204454422,
      0.07991302758455276,
      0.008597202599048615,
      -0.02168622612953186,
      -0.04629259556531906,
      -0.01790454238653183,
      0.021895207464694977,
      0.06240539997816086,
      -0.052509598433971405,
      -0.008270546793937683,
      -0.006337001919746399,
      -0.08925827592611313,
      0.05553106218576431,
      0.07475509494543076,
      -0.08247123658657074,
      0.07223068922758102,
      -0.0803937017917633,
      0.01781374216079712,
      0.032475896179676056,
      -0.059204183518886566,
      -0.049923378974199295,
      0.0793984904885292,
      0.013839729130268097,
      0.06076120585203171,
      -0.0657787024974823,
      -0.06784166395664215,
      0.08537653833627701,
      -0.036363355815410614,
      -0.05583440139889717,
      0.022552117705345154,
      -0.011683560907840729,
      0.021847181022167206,
      -0.06908320635557175,
      -0.07434767484664917,
      -0.02434011548757553,
      0.07563231140375137,
      -0.0701337531208992,
      0.04669179767370224,
      -0.007873505353927612,
      -0.07355666905641556,
      -0.0008950307965278625,
      -0.06450849026441574,
      -0.07576870173215866,
      0.084396593272686,
      0.041025541722774506,
      0.008254162967205048,
      0.06706710904836655,
      0.01923976093530655,
      -0.022315971553325653,
      0.0586809441447258,
      0.06270443648099899,
      -0.09037236869335175,
      -0.023053273558616638,
      0.061158426105976105,
      0.05770624428987503,
      0.042788632214069366,
      0.09093006700277328,
      -0.035852015018463135,
      0.06074095517396927,
      0.08588727563619614,
      -0.019539736211299896,
      0.07807343453168869,
      0.01382511854171753,
      -0.07558220624923706,
      0.06422256678342819,
      0.01346590369939804,
      0.011529900133609772,
      -0.0015787333250045776,
      0.04680182784795761,
      0.004503697156906128,
      0.008132144808769226,
      -0.014406584203243256,
      -0.08199445903301239,
      -0.059016622602939606,
      0.0854145959019661,
      -0.033861976116895676,
      0.06681004911661148,
      0.002723000943660736,
      0.05593649297952652,
      -0.05688108503818512,
      -0.06147262826561928,
      0.001104399561882019,
      -0.03663163259625435,
      -0.05237456411123276,
      -0.02915991097688675,
      -0.08956871926784515,
      0.06540607661008835,
      -0.08926016092300415,
      0.04230795055627823,
      -0.025372013449668884,
      0.0573854073882103,
      -0.07987809926271439,
      -0.04818590730428696,
      -0.03330554813146591,
      0.01758550852537155,
      0.05749347060918808,
      -0.0710051953792572,
      0.012899674475193024,
      0.08289647847414017,
      -0.048303574323654175,
      0.008526042103767395,
      -0.044565360993146896,
      0.09357305616140366,
      0.09038255363702774,
      0.016923032701015472,
      -0.05287906527519226,
      -0.057497020810842514,
      -0.06259594112634659,
      0.04195626825094223,
      -0.0038374289870262146,
      0.080586738884449,
      -0.04183214530348778,
      0.06805747002363205,
      -0.01323041319847107,
      -0.028946854174137115,
      -0.05369853600859642,
      0.031915657222270966,
      0.03799491375684738,
      0.08607066422700882,
      -0.07908066362142563,
      -0.015254050493240356,
      0.09389098733663559,
      0.005213893949985504,
      -0.07907857745885849,
      0.059346698224544525,
      -0.08990603685379028,
      0.06648445874452591,
      0.07117610424757004,
      -0.05443330109119415,
      -0.06684471666812897,
      -0.01548207551240921,
      -0.014287233352661133,
      0.02405889332294464,
      -0.04888153821229935,
      0.03690258413553238,
      0.017192408442497253,
      0.03502041846513748,
      0.0210561603307724,
      0.0471687987446785,
      -0.03837219253182411,
      -0.06559407711029053,
      0.028587564826011658,
      0.010403387248516083,
      0.029594868421554565,
      0.0323648676276207,
      -0.039851073175668716,
      0.07257699221372604,
      -0.033072929829359055,
      -0.04262349009513855,
      -0.0016399770975112915,
      -0.04841037839651108,
      -0.03241236135363579,
      0.013178616762161255,
      0.06288962811231613,
      -0.06626260280609131,
      -0.07837508618831635,
      -0.004035189747810364,
      -0.08184441924095154,
      0.06358731538057327,
      -0.07941635698080063,
      -0.07398749887943268,
      -0.010012209415435791,
      -0.008418776094913483,
      -0.09256862848997116,
      0.050379835069179535,
      0.007966667413711548,
      -0.08485469222068787,
      0.09240493923425674,
      0.031150110065937042,
      0.024746939539909363,
      0.08773054927587509,
      0.05735800415277481,
      0.08534324914216995,
      -0.08859775960445404,
      -0.0496191531419754,
      -0.016430340707302094,
      0.019281089305877686,
      -0.08236263692378998,
      0.024841807782649994,
      -0.05896531417965889,
      -0.04256118834018707,
      0.08907800167798996,
      0.05275597423315048,
      -0.029743798077106476,
      0.05997972935438156,
      -0.011139437556266785,
      0.0018599331378936768,
      -0.0632866770029068,
      -0.09009775519371033,
      -0.012588448822498322,
      0.08445378392934799,
      0.08055730909109116,
      -0.05331786349415779,
      -0.08288420736789703,
      -0.017389528453350067,
      0.03820645064115524,
      0.007653780281543732,
      -0.05128789320588112,
      -0.0015513226389884949,
      0.07239925116300583,
      -0.08008365333080292,
      0.06786700338125229,
      -0.06797700375318527,
      -0.04375096783041954,
      0.014535538852214813,
      -0.08268460631370544,
      -0.017748452723026276,
      -0.03345903381705284,
      -0.047836512327194214,
      0.05439605563879013,
      -0.019575826823711395,
      -0.03920634090900421,
      -0.02500646561384201,
      0.04948512464761734,
      -0.006296709179878235,
      0.06047312170267105,
      -0.08602728694677353,
      -0.0652129128575325,
      0.040759794414043427,
      0.00040056556463241577,
      0.03720060735940933,
      -0.03153092414140701,
      0.05421332269906998,
      0.058072976768016815,
      -0.06666440516710281,
      -0.019856102764606476,
      -0.05127957835793495,
      -0.026129700243473053,
      -0.024205908179283142,
      -0.06823301315307617,
      0.004526279866695404,
      0.02585642784833908,
      0.050378210842609406,
      0.05595921725034714,
      -0.07217994332313538,
      0.0875602439045906,
      -0.056499890983104706,
      0.016587145626544952,
      0.0790240541100502,
      -0.00581812858581543,
      0.0708703026175499,
      0.08646424859762192,
      -0.0068151578307151794,
      0.022788874804973602,
      -0.005537658929824829,
      -0.025939807295799255,
      0.037307821214199066,
      0.08241050690412521,
      -0.021910518407821655,
      0.004704266786575317,
      0.06325273960828781,
      -0.0194859579205513,
      0.03356211632490158,
      -0.07982096821069717,
      0.053887493908405304,
      -0.06050984188914299,
      0.06983596831560135,
      0.07202225178480148,
      -0.00495254248380661,
      0.038301773369312286,
      -0.06043332442641258,
      0.02302779257297516,
      0.093294657766819,
      0.06458746641874313,
      -0.08769547939300537,
      -0.0367128923535347,
      0.046012572944164276,
      0.033810652792453766,
      0.05650142580270767,
      0.08996855467557907,
      0.022378578782081604,
      -0.019422315061092377,
      0.08642131835222244,
      -0.07134034484624863,
      -0.034918077290058136,
      -0.025217466056346893,
      -0.08349374681711197,
      -0.07215479016304016,
      -0.007034808397293091,
      0.06145920604467392,
      -0.07931680977344513,
      -0.08418261259794235,
      -0.09333083778619766,
      0.09301873296499252,
      -0.06166789308190346,
      0.01185828447341919,
      0.05643520504236221,
      0.011899389326572418,
      0.03269221633672714,
      -0.0832236111164093,
      -0.023261144757270813,
      -0.053349390625953674,
      -0.04488513991236687,
      0.050075046718120575,
      -0.019177794456481934,
      -0.06788935512304306,
      0.08317356556653976,
      0.06404326111078262,
      -0.027097225189208984,
      -0.08420669287443161,
      0.029927968978881836,
      -0.011654116213321686,
      -0.08111892640590668,
      -0.07640790939331055,
      -0.04098586365580559,
      -0.05485870689153671,
      -0.0823829174041748,
      -0.028675995767116547,
      -0.001623503863811493,
      0.06242530792951584,
      -0.09180533140897751,
      0.05897387117147446,
      0.07821785658597946,
      0.0594606027007103,
      -0.04574938863515854,
      -0.04637157917022705,
      0.07135269790887833,
      -0.021996743977069855,
      0.08800704032182693,
      0.03424186259508133,
      0.009318053722381592,
      -0.034173622727394104,
      -0.017228305339813232,
      -0.08318959176540375,
      0.07945727556943893,
      0.07264939695596695,
      0.04443063586950302,
      -0.03918927535414696,
      -0.016835622489452362,
      0.011940084397792816,
      -0.008989863097667694,
      -0.010243363678455353,
      -0.041652072221040726,
      -0.03990595042705536,
      -0.029675588011741638,
      0.03321587294340134,
      -0.004318699240684509,
      0.018505126237869263,
      0.04213229566812515,
      0.05021960288286209,
      -0.06432944536209106,
      -0.09251651167869568,
      0.02739289402961731,
      -0.07101152837276459,
      -0.0074754878878593445,
      -0.09161382913589478,
      -0.03393179178237915,
      0.035635970532894135,
      0.04120642691850662,
      -0.05434020236134529,
      0.08931993693113327,
      -0.07374760508537292,
      -0.06985292583703995,
      0.07643648236989975,
      0.011218927800655365,
      0.029002562165260315,
      0.056474439799785614,
      -0.017393596470355988,
      0.020802058279514313,
      -0.05574450269341469,
      0.08264613896608353,
      0.031067825853824615,
      0.008432768285274506,
      0.07313273102045059,
      0.04558943957090378,
      -0.06307251751422882,
      0.0826871320605278,
      -0.05582815036177635,
      -0.08019617199897766,
      0.03610049933195114,
      -0.06780383735895157,
      0.004049777984619141,
      -0.013788171112537384,
      -0.06464937329292297,
      -0.0013091713190078735,
      0.058347202837467194,
      -0.07612626999616623,
      -0.017892368137836456,
      -0.02451588213443756,
      -0.011321596801280975,
      0.01767294853925705,
      0.01734958589076996,
      -0.029582612216472626,
      -0.007635235786437988,
      -0.03777462616562843,
      -0.08418738842010498,
      0.0014853551983833313,
      -0.07378922402858734,
      0.029946237802505493,
      -0.09148423373699188,
      -0.0007334128022193909,
      0.04637330025434494,
      -0.0715438723564148,
      -0.08714808523654938,
      -0.04692016914486885,
      0.08936931937932968,
      -0.02459067851305008,
      0.024974733591079712,
      -0.03345959633588791,
      0.06266846507787704,
      0.025901392102241516,
      -0.055257122963666916,
      0.07918869704008102,
      -0.014770962297916412,
      0.09012516587972641,
      -0.026117540895938873,
      -0.04808104783296585,
      -0.06584054231643677,
      -0.0006199628114700317,
      0.03795119374990463,
      0.03208618611097336,
      -0.07373615354299545,
      0.08930083364248276,
      0.09422106295824051,
      0.06717581301927567,
      0.016873911023139954,
      0.051564015448093414,
      -0.08339300006628036,
      -0.02693001925945282,
      -0.0809532031416893,
      0.05465436726808548,
      -0.04156875237822533,
      -0.07068992406129837,
      -0.05942303687334061,
      -0.011146575212478638,
      0.07654448598623276,
      0.020994625985622406,
      -0.09239277243614197,
      0.09142791479825974,
      0.06681322306394577,
      0.014747023582458496,
      0.021291233599185944,
      -0.0817880630493164,
      0.028225742280483246,
      0.038386501371860504,
      -0.0571305975317955,
      0.08471003919839859,
      -0.015579015016555786,
      -0.054588377475738525,
      -0.02003415673971176,
      -0.03382638096809387,
      0.0005174800753593445,
      -0.033741652965545654,
      0.012374445796012878,
      -0.05668976157903671,
      -0.01420610398054123,
      0.06587902456521988,
      -0.016734205186367035,
      0.04429536312818527,
      -0.056217778474092484,
      -0.052366744726896286,
      0.040188439190387726,
      -0.06290780007839203,
      -0.05243034288287163,
      -0.0398823507130146,
      0.018841639161109924,
      0.0647880956530571,
      0.01854332536458969,
      0.058061160147190094,
      -0.03363717719912529,
      -0.024265065789222717,
      0.024010315537452698,
      0.024924203753471375,
      0.018634259700775146,
      0.09345310181379318,
      0.0907682552933693,
      -0.02941615879535675,
      0.04724014550447464,
      -0.0013737604022026062,
      -0.022151708602905273,
      0.07740048319101334,
      0.008212834596633911,
      0.0905717983841896,
      0.011637277901172638,
      -0.02198486030101776,
      -0.08419814705848694,
      0.05640371888875961,
      -0.028501085937023163,
      -0.048135239630937576,
      0.001100003719329834,
      -0.06925095617771149,
      -0.02418862283229828,
      0.011171571910381317,
      -0.004314884543418884,
      -0.05334142595529556,
      0.010114267468452454,
      0.08772169798612595,
      0.04583580046892166,
      -0.007658116519451141,
      -0.08701381832361221,
      0.04189189523458481,
      -0.0017273575067520142,
      -0.02103547751903534,
      -0.07415538281202316,
      0.08115116506814957,
      0.04259496182203293,
      -0.06496530771255493,
      0.0076022669672966,
      0.09030649811029434,
      0.030945174396038055,
      0.08600952476263046,
      -0.07192405313253403,
      0.055827341973781586,
      0.01551373302936554,
      0.030872128903865814,
      0.09325876086950302,
      0.024211682379245758,
      -0.07276294380426407,
      -0.06075924262404442,
      0.0720503106713295,
      0.06456074863672256,
      0.0361904576420784,
      0.021521054208278656,
      -0.07163906842470169,
      0.028042003512382507,
      -0.07251377403736115,
      0.031500957906246185,
      0.03720133751630783,
      0.029160156846046448,
      0.0009287446737289429,
      -0.02531251311302185,
      0.08406516164541245,
      -0.03518722206354141,
      -0.04814278706908226,
      -0.043441541492938995,
      -0.06197993457317352,
      -0.07615740597248077,
      0.03873322159051895,
      0.04229974001646042,
      -0.05300149694085121,
      0.03386976569890976,
      -0.07040487974882126,
      -0.08203642815351486,
      0.011414729058742523,
      0.06617439538240433,
      -0.06347121298313141,
      0.0569961741566658,
      -0.04516616091132164,
      -0.008493877947330475,
      0.051408134400844574,
      -0.05137724056839943,
      0.058796562254428864,
      -0.07233348488807678,
      -0.08348944783210754,
      -0.07374366372823715,
      0.06168844550848007,
      0.06510251015424728,
      -0.08836104720830917,
      0.06638932973146439,
      -0.07677171379327774,
      0.02008795738220215,
      0.01851179450750351,
      0.04640726000070572,
      -0.018466725945472717,
      0.04392721503973007,
      -0.083696648478508,
      0.042280636727809906,
      0.0358390286564827,
      0.00837467610836029,
      0.08460002392530441,
      -0.04020973667502403,
      -0.05643707141280174,
      -0.013391174376010895,
      0.02356371283531189,
      0.009017512202262878,
      -0.07290896773338318,
      -0.08651956170797348,
      0.02500145137310028,
      0.0007283315062522888,
      0.031579844653606415,
      -0.06547554582357407,
      0.03259735554456711,
      -0.06741085648536682,
      -0.08874137699604034,
      0.052109621465206146,
      0.01715238392353058,
      0.09156934171915054,
      0.07008864730596542,
      -0.08442570269107819,
      0.05792216211557388,
      -0.007110930979251862,
      0.07932371646165848,
      -0.027240201830863953,
      0.022087976336479187,
      -0.05895594134926796,
      -0.02349857985973358,
      0.04994485527276993,
      -0.006014123558998108,
      -0.02395455539226532,
      -0.011147476732730865,
      -0.08540818840265274,
      0.0536387637257576,
      -0.041591472923755646,
      0.06167111545801163,
      0.04173082858324051,
      0.0415097251534462,
      -0.04777505621314049,
      0.04517539590597153,
      0.04303490370512009,
      -0.013338133692741394,
      0.07275242358446121,
      0.032863862812519073,
      0.027123406529426575,
      -0.04656994342803955,
      -0.08790099620819092,
      0.09116063266992569,
      -0.05075164884328842,
      0.08099310845136642,
      0.07579734176397324,
      -0.026870504021644592,
      0.06116773933172226,
      -0.006156750023365021,
      0.06010992079973221,
      -0.0833953469991684,
      0.038423843681812286,
      0.018108084797859192,
      0.0806502178311348,
      0.04401051253080368,
      -0.024844132363796234,
      -0.08133428543806076,
      0.09421256929636002,
      0.01203002780675888,
      -0.02617112547159195,
      -0.018971018493175507,
      0.05862654000520706,
      -0.08875301480293274,
      -0.04099778085947037,
      -0.07801508158445358,
      0.051423124969005585,
      -0.030418910086154938,
      0.007777005434036255,
      0.008856438100337982,
      -0.04448116198182106,
      0.08173713833093643,
      0.059570394456386566,
      0.0851263776421547,
      -0.07895822823047638,
      0.014266304671764374,
      0.07928042858839035,
      -0.0928891971707344,
      0.051880814135074615,
      -0.09445054084062576,
      0.05255310982465744,
      -0.09074494987726212,
      -0.038475632667541504,
      0.024208202958106995,
      0.008746609091758728,
      0.06136425584554672,
      -0.05786614120006561,
      0.02820003777742386,
      -0.08859970420598984,
      0.0006317570805549622,
      0.0025462210178375244,
      0.04411136358976364,
      0.046646662056446075,
      -0.08711256086826324,
      0.011238984763622284,
      0.05633958429098129,
      0.005983330309391022,
      -0.02228088676929474,
      -0.03570619970560074,
      -0.059188175946474075,
      -0.07400985062122345,
      0.05484127253293991,
      -0.04244885966181755,
      -0.054423365741968155,
      -0.01372867077589035,
      0.08861177414655685,
      0.008065834641456604,
      -0.06491956859827042,
      -0.0034927278757095337,
      -0.008486047387123108,
      -0.09096575528383255,
      0.00787121057510376,
      -0.03567720577120781,
      -0.03019958734512329,
      0.007632724940776825,
      0.007291622459888458,
      0.007057987153530121,
      -0.025675222277641296,
      0.09375637024641037,
      0.0006831437349319458,
      0.0022140368819236755,
      -0.06076996400952339,
      -0.0758332759141922,
      0.03241116553544998,
      -0.02863846719264984,
      0.07610607892274857,
      -0.07028955221176147,
      -0.019070222973823547,
      -0.0281686931848526,
      -0.05510525777935982,
      0.06451941281557083,
      0.06971818953752518,
      -0.09207381308078766,
      -0.016590595245361328,
      -0.023533523082733154,
      0.01625700294971466,
      0.06646700948476791,
      0.04264291375875473,
      0.020366132259368896,
      -0.03833968564867973,
      -0.010987669229507446,
      0.03966213017702103,
      -0.09222646057605743,
      0.08322938531637192,
      -0.00643438845872879,
      -0.00977342575788498,
      -0.06633028388023376,
      -0.015586532652378082,
      -0.05781310796737671,
      -0.09129304438829422,
      0.05972865968942642,
      0.04472798854112625,
      0.06319966167211533,
      -0.030130445957183838,
      0.035053424537181854,
      -0.08339632302522659,
      -0.03197982907295227,
      0.07133462280035019,
      0.03638271242380142,
      -0.019630976021289825,
      0.049935393035411835,
      -0.00883350521326065,
      -0.01629597693681717,
      0.04554494470357895,
      0.06269881874322891,
      0.09204534441232681,
      -0.023098506033420563,
      0.05989668518304825,
      0.06518805772066116,
      -0.039063386619091034,
      -0.02455359697341919,
      0.03843667358160019,
      -0.055084507912397385,
      -0.08972218632698059,
      0.02307935059070587,
      0.06330772489309311,
      0.06392922252416611,
      -0.035279758274555206,
      0.004029281437397003,
      -0.007065445184707642,
      0.009745337069034576,
      0.04748672991991043,
      -0.04527962580323219,
      0.05345585197210312,
      -0.0047506242990493774,
      0.06732659786939621,
      0.06122145801782608,
      -0.06889031827449799,
      -0.08782704919576645,
      0.04778144508600235,
      0.02688523381948471,
      -0.04178497940301895,
      -0.07211986929178238,
      -0.014536432921886444,
      0.007693104445934296,
      0.0530756339430809,
      -0.02607538551092148,
      0.04023154824972153,
      -0.06823274493217468,
      0.05688544362783432,
      -0.03449210897088051,
      -0.06665923446416855,
      -0.08944576978683472,
      -0.06715261191129684,
      0.03159759193658829,
      0.02904733270406723,
      -0.014332592487335205,
      0.07323523610830307,
      -0.035002220422029495,
      0.012957796454429626,
      0.015958376228809357,
      0.05534655600786209,
      0.0882132425904274,
      -0.033856816589832306,
      0.08806825429201126,
      0.08983225375413895,
      -0.0524665005505085,
      -0.015283867716789246,
      0.06224428862333298,
      -0.0615023635327816,
      0.08179106563329697,
      0.024732835590839386,
      -0.05321686714887619,
      0.026584111154079437,
      -0.02968672662973404,
      0.07516296952962875,
      -0.024844542145729065,
      -0.038895245641469955,
      0.01984725147485733,
      -0.0563640333712101,
      -0.06551269441843033,
      0.02016599476337433,
      -0.0577167309820652,
      0.026527605950832367,
      -0.059680186212062836,
      0.07096066325902939,
      0.07154742628335953,
      0.06519380956888199,
      0.08566690236330032,
      0.010999567806720734,
      0.09054335206747055,
      -0.0911957249045372,
      -0.0796927809715271,
      -0.038961298763751984,
      -0.04700963944196701,
      -0.04586036503314972,
      -0.09229433536529541,
      0.07478154450654984,
      0.04486498981714249,
      -0.0915241539478302,
      -0.017579413950443268,
      -0.046790044754743576,
      -0.09203683584928513,
      0.04953894764184952,
      -0.03555978834629059,
      -0.08617660403251648,
      -0.03385954350233078,
      -0.037054527550935745,
      0.08608157187700272,
      -0.09292793273925781,
      -0.03222254663705826,
      0.0875132754445076,
      0.08602660149335861,
      0.06826893240213394,
      -0.0818871334195137,
      -0.06032748520374298,
      -0.06465285271406174,
      -0.044541727751493454,
      0.02293761819601059,
      -0.007670484483242035,
      -0.08649305999279022,
      -0.03969428688287735,
      -0.036674898117780685,
      -0.08010745048522949,
      -0.0938425362110138,
      0.00987059623003006,
      0.060356102883815765,
      -0.01637321710586548,
      -0.03838251158595085,
      -0.029921576380729675,
      -0.021605290472507477,
      -0.033107757568359375,
      -0.07754755765199661,
      0.04108124226331711,
      -0.02055393159389496,
      0.03794602304697037,
      -0.04945046082139015,
      0.025898322463035583,
      0.04447842389345169,
      -0.05491839349269867,
      0.06358177214860916,
      -0.07657480239868164,
      0.08400476723909378,
      -0.00013756006956100464,
      -0.07605145871639252,
      -0.03887868672609329,
      -0.012449517846107483,
      -0.07378289103507996,
      -0.06580732762813568,
      0.08883371204137802,
      -0.029057830572128296,
      0.004192538559436798,
      -0.003664270043373108,
      -0.00021518021821975708,
      0.027749963104724884,
      0.018317759037017822,
      0.03090546280145645,
      -0.05383151024580002,
      0.0684104636311531,
      -0.015345513820648193,
      -0.006649501621723175,
      -0.03236626833677292,
      0.06457061320543289,
      -0.004671528935432434,
      -0.032322246581315994,
      0.036572299897670746,
      -0.02390984445810318,
      -0.03240801393985748,
      0.05967880040407181,
      -0.05061597004532814,
      -0.01569642871618271,
      -0.07403655350208282,
      -0.058459822088479996,
      0.07306327670812607,
      0.034183405339717865,
      -0.008626654744148254,
      0.03361477702856064,
      -0.07430136948823929,
      -0.06624142825603485,
      -0.022356249392032623,
      0.07776356488466263,
      0.07183987647294998,
      0.04159652441740036,
      0.01624137908220291,
      -0.009912006556987762,
      0.05153162032365799,
      0.04558641463518143,
      0.036414824426174164,
      0.06269492954015732,
      0.0690564438700676,
      0.017514951527118683,
      -0.09183137863874435,
      0.0286145880818367,
      -0.02480900287628174,
      0.01886778324842453,
      0.01136772334575653,
      0.04429904371500015,
      -0.03771395608782768,
      0.04897094517946243,
      -0.006471224129199982,
      0.0848359689116478,
      -0.011335603892803192,
      0.01936841756105423,
      0.05174621194601059,
      -0.049056630581617355,
      -0.08318972587585449,
      0.03315681964159012,
      -0.06466367840766907,
      0.002273358404636383,
      -0.06414856761693954,
      -0.05551325902342796,
      -0.0503617487847805,
      -0.032977476716041565,
      0.006217554211616516,
      0.02839580923318863,
      0.03806265443563461,
      0.035663895308971405,
      -0.0698762983083725,
      0.04987721890211105,
      -0.08294310420751572,
      0.003319777548313141,
      -0.07598379254341125,
      0.06285420805215836,
      0.07725828140974045,
      -0.03246016800403595,
      -0.051105692982673645,
      -0.08091741800308228,
      -0.060943860560655594,
      -0.0445992648601532,
      -0.06490002572536469,
      0.04615042358636856,
      -0.02407597005367279,
      0.09235092252492905,
      0.014290191233158112,
      -0.0801779180765152,
      -0.06703849136829376,
      0.04024795442819595,
      0.08723104745149612,
      -0.018445484340190887,
      0.01614689826965332,
      -0.0033284947276115417,
      -0.06694163382053375,
      0.07384275645017624,
      -0.04964109882712364,
      0.05575620383024216,
      0.057720594108104706,
      0.004815675318241119,
      0.01975914090871811,
      -0.07788226008415222,
      -0.056143343448638916,
      -0.07383181154727936,
      0.07390802353620529,
      0.0007473006844520569,
      -0.024987436830997467,
      -0.06710456311702728,
      0.07842916995286942,
      -0.03635593131184578,
      -0.0756792426109314,
      0.0891323909163475,
      -0.028383612632751465,
      0.07813291996717453,
      0.06605244427919388,
      -0.07480035722255707,
      -0.041060734540224075,
      0.04798717051744461,
      0.09211886674165726,
      0.08594148606061935,
      0.06567136198282242,
      -0.030711553990840912,
      -0.0360344722867012,
      -0.023930683732032776,
      -0.0041820332407951355,
      0.027077414095401764,
      -0.0113290473818779,
      -0.0871141105890274,
      0.07869742065668106,
      0.08207600563764572,
      -0.05280236527323723,
      -0.011125311255455017,
      0.0837908461689949,
      -0.05475099757313728,
      -0.08755037188529968,
      -0.079154372215271,
      0.0049099400639534,
      0.05839390307664871,
      0.006364032626152039,
      -0.027537643909454346,
      -0.08322003483772278,
      -0.09266386926174164,
      -0.05096948519349098,
      -0.06003642827272415,
      0.0617503747344017,
      -0.023510843515396118,
      0.06924901157617569,
      -0.003708779811859131,
      0.06741287559270859,
      -0.048870477825403214,
      0.04262521117925644,
      -0.0342608205974102,
      -0.061851318925619125,
      0.0033228322863578796,
      -0.0079316645860672,
      -0.028884828090667725,
      -0.04887349531054497,
      -0.026291348040103912,
      0.06233253329992294,
      0.04009465128183365,
      -0.043896324932575226,
      0.03195545822381973,
      -0.053363751620054245,
      -0.06272317469120026,
      -0.018223069608211517,
      -0.045531246811151505,
      -0.08396666496992111,
      -0.00907094031572342,
      -0.02851441502571106,
      0.002834215760231018,
      0.045400552451610565,
      0.062272898852825165,
      -0.048009105026721954,
      -0.056629035621881485,
      0.09185690432786942,
      -0.061876945197582245,
      0.017752259969711304,
      0.06965861469507217,
      -0.0011454373598098755,
      -0.0827116146683693,
      -0.029049396514892578,
      -0.04578089341521263,
      -0.08266656845808029,
      0.03145910054445267,
      0.09339430183172226,
      -0.0877072885632515,
      -0.05961427837610245,
      0.04491341859102249,
      0.053613923490047455,
      0.08944960683584213,
      -0.041777029633522034,
      -0.027052439749240875,
      -0.07496782392263412,
      -0.04461527243256569,
      -0.03670923411846161,
      -0.09308771789073944,
      -0.03775930777192116,
      -0.08106360584497452,
      0.0209483802318573,
      0.016942791640758514,
      0.07812056690454483,
      0.0703008845448494,
      -0.009081527590751648,
      -0.012781001627445221,
      0.06324348598718643,
      -0.041397109627723694,
      -0.0012076273560523987,
      -0.04346626624464989,
      -0.08890092372894287,
      0.008540928363800049,
      -0.036195460706949234,
      0.00028727203607559204,
      -0.07040932774543762,
      0.013384290039539337,
      0.08077239245176315,
      -0.02224508672952652,
      -0.07273903489112854,
      0.057850904762744904,
      0.08057082444429398,
      0.07544130831956863,
      -0.08776688575744629,
      -0.008360795676708221,
      0.09001908451318741,
      0.010595284402370453,
      0.09368709474802017,
      -0.0573151521384716,
      0.008635960519313812,
      0.01590707153081894,
      0.02698274701833725,
      -0.014426521956920624,
      -0.0055707767605781555,
      0.01680479198694229,
      -0.01826949417591095,
      -0.02205561101436615,
      0.0728592798113823,
      0.01799090951681137,
      -0.0900954008102417,
      0.07860686630010605,
      0.0559968575835228,
      0.026745572686195374,
      0.04550734907388687,
      -0.0726962611079216,
      -0.08068805932998657,
      0.08733200281858444,
      0.04090415686368942,
      -0.08704278618097305,
      -0.07888955622911453,
      -0.032581549137830734,
      -0.0069844722747802734,
      -0.028805404901504517,
      0.055283524096012115,
      -0.02578100562095642,
      0.09379520267248154,
      0.08425895124673843,
      -0.018070049583911896,
      0.08596330136060715,
      -0.09068281948566437,
      0.03066778928041458,
      0.0818404033780098,
      0.00817696750164032,
      -0.05553365871310234,
      -0.011584445834159851,
      0.07864023000001907,
      -0.01814597100019455,
      -0.09141252934932709,
      -0.09051387012004852,
      0.09403344243764877,
      0.011195972561836243,
      -0.040757808834314346,
      -0.025988005101680756,
      0.061743758618831635,
      0.0042189136147499084,
      0.08016081899404526,
      -0.023048922419548035,
      0.06444703787565231,
      -0.0428270660340786,
      0.004443168640136719,
      0.018586263060569763,
      -0.07958274334669113,
      0.020543143153190613,
      0.0213581845164299,
      0.06847827881574631,
      -0.05945458635687828,
      0.0688006654381752,
      0.045218296349048615,
      0.03207729011774063,
      -0.003174722194671631,
      -0.0606723390519619,
      0.044702328741550446,
      -0.08750857412815094,
      0.009543441236019135,
      0.022222526371479034,
      -0.0663352906703949,
      -0.07417304813861847,
      0.0648609921336174,
      -0.07501646876335144,
      0.05054803937673569,
      0.09251708537340164,
      -0.05259568989276886,
      -0.02970506250858307,
      -0.041812218725681305,
      0.0886501893401146,
      0.0004350319504737854,
      0.03169135004281998,
      -0.02669815719127655,
      -0.061963025480508804,
      -0.009113721549510956,
      0.08793672174215317,
      0.05546727031469345,
      0.005814872682094574,
      -0.049033764749765396,
      0.051583610475063324,
      -0.026970572769641876,
      0.007848083972930908,
      0.0641159638762474,
      0.03287272900342941,
      -0.013951174914836884,
      -0.01863887906074524,
      0.05193743854761124,
      -0.0010931342840194702,
      0.004685252904891968,
      -0.09380772709846497,
      0.07767798751592636,
      -0.08133876323699951,
      -0.08342625200748444,
      0.06007955223321915,
      -0.04610326513648033,
      0.04080239683389664,
      -0.05349712073802948,
      0.09447365254163742,
      -0.01846075803041458,
      -0.004037782549858093,
      0.021645240485668182,
      0.021121211349964142,
      -0.008392587304115295,
      0.05560661107301712,
      0.05403568595647812,
      0.05695477873086929,
      0.03722933679819107,
      -0.05941212177276611,
      -0.09149014949798584,
      0.026706896722316742,
      0.015605367720127106,
      0.01586974412202835,
      0.023134924471378326,
      0.04806303232908249,
      -0.08501456677913666,
      0.053552351891994476,
      -0.0795929804444313,
      0.005243942141532898,
      -0.00887104868888855,
      -0.05283016711473465,
      0.03704418987035751,
      0.06284736841917038,
      -0.04608199745416641,
      -0.06623248010873795,
      0.006030820310115814,
      -0.01149497926235199,
      -0.004037961363792419,
      0.06418541818857193,
      0.08173123747110367,
      -0.01827119290828705,
      -0.07935464382171631,
      -0.027546636760234833,
      -0.027401991188526154,
      -0.08159372210502625,
      0.051410384476184845,
      -0.04496569186449051,
      -0.04137955978512764,
      0.05476605147123337,
      -0.044755592942237854,
      -0.08339472115039825,
      -0.06375746428966522,
      -0.03383079916238785,
      -0.06637957692146301,
      0.05027351528406143,
      -0.03954891860485077,
      -0.08951015770435333,
      -0.05781470611691475,
      -0.09044717252254486,
      0.0929505005478859,
      0.010518752038478851,
      0.04118918627500534,
      0.03786938637495041,
      -0.014160633087158203,
      -0.02601408213376999,
      0.026936106383800507,
      0.08540552109479904,
      0.07835421711206436,
      -0.004485093057155609,
      -0.030600622296333313,
      0.07607684284448624,
      -0.01043751835823059,
      -0.03488275036215782,
      -0.004026070237159729,
      0.07833587378263474,
      0.07868466526269913,
      -0.06854146718978882,
      0.058757223188877106,
      0.0925774946808815,
      -0.0011634454131126404,
      0.05366645008325577,
      0.006718441843986511,
      -0.07105152308940887,
      0.07256316393613815,
      0.04294119030237198,
      0.044208042323589325,
      0.05961499363183975,
      0.0010372847318649292,
      -0.019985221326351166,
      -0.007260441780090332,
      -0.0058853402733802795,
      -0.08091109991073608,
      0.047107256948947906,
      0.015009120106697083,
      -0.05938153713941574,
      0.040978528559207916,
      -0.04212819039821625,
      -0.016516171395778656,
      0.09014131873846054,
      -0.004655793309211731,
      0.026671528816223145,
      0.026062101125717163,
      -0.01293017715215683,
      -0.09338296204805374,
      0.02700173109769821,
      0.03267481178045273,
      0.02699616551399231,
      -0.047372933477163315,
      0.015985436737537384,
      0.08780588954687119,
      0.08429165929555893,
      0.0261024609208107,
      -0.05027281865477562,
      0.0675182119011879,
      -0.07384271919727325,
      0.0502687469124794,
      -0.003443382680416107,
      0.08117862790822983,
      -0.06286247074604034,
      -0.05529604107141495,
      0.04387298971414566,
      0.08614642173051834,
      -0.07817700505256653,
      -0.008509613573551178,
      0.057876817882061005,
      -0.0006559640169143677,
      -0.0018914863467216492,
      -0.08558320254087448,
      0.06888086348772049,
      0.05564027279615402,
      0.0045767053961753845,
      0.05699089914560318,
      -0.06259232759475708,
      0.08486386388540268,
      -0.03601015359163284,
      0.008630283176898956,
      -0.05541501194238663,
      -0.08923457562923431,
      -0.0331825315952301,
      0.05667411535978317,
      0.08658460527658463,
      -0.07213255763053894,
      0.011763997375965118,
      0.023846283555030823,
      -0.010443858802318573,
      -0.012270510196685791,
      -0.01926048845052719,
      0.04167614132165909,
      0.07732444256544113,
      0.06283179670572281,
      0.044508494436740875,
      0.02143494039773941,
      0.04364193230867386,
      0.08129299432039261,
      -0.04828816279768944,
      -0.0722990483045578,
      0.03688464313745499,
      0.002162158489227295,
      0.02267485111951828,
      0.03335314244031906,
      0.070265032351017,
      -0.04484274238348007,
      0.04081252962350845,
      0.07399604469537735,
      0.023570649325847626,
      0.012763962149620056,
      0.09074626117944717,
      0.03645911067724228,
      -0.046673886477947235,
      -0.06820061802864075,
      -0.06750302761793137,
      -0.04101537540555,
      -0.05466558039188385,
      -0.019164659082889557,
      0.07630402594804764,
      0.01915574073791504,
      -0.0686262995004654,
      0.02618931233882904,
      -0.0606670007109642,
      0.0892554447054863,
      -0.00944819301366806,
      0.044196002185344696,
      -0.05495863035321236,
      0.008939124643802643,
      -0.08410356938838959,
      -0.0032890290021896362,
      -0.06899060308933258,
      0.06792714446783066,
      0.029923461377620697,
      -0.031017906963825226,
      -0.09268305450677872,
      0.0016706660389900208,
      0.030631281435489655,
      0.032606594264507294,
      0.012069083750247955,
      -0.06042274460196495,
      -0.0824800580739975,
      -0.043324876576662064,
      -0.026270881295204163,
      0.0275128111243248,
      -0.045030586421489716,
      0.046688295900821686,
      0.03831610828638077,
      -0.08930888026952744,
      -0.06552336364984512,
      0.07950618118047714,
      0.04389282315969467,
      -0.029727734625339508,
      0.0626424178481102,
      0.037259720265865326,
      0.08023513108491898,
      0.07238005846738815,
      0.07883428782224655,
      -0.047577548772096634,
      0.06632796674966812,
      0.09089811891317368,
      -0.07247103750705719,
      -0.04138602316379547,
      -0.017172738909721375,
      0.07203277200460434,
      -0.082005076110363,
      0.018672697246074677,
      -0.07242872565984726,
      0.023586668074131012,
      -0.09323006123304367,
      0.08637609332799911,
      -0.07464537769556046,
      0.0688103511929512,
      -0.06293347477912903,
      0.09041284769773483,
      0.02254294604063034,
      -0.04776165261864662,
      -0.06462325155735016,
      -0.07950055599212646,
      0.03564762324094772,
      0.08553992956876755,
      0.01815829426050186,
      -0.035455040633678436,
      -0.021694369614124298,
      -0.05592316389083862,
      -0.061826784163713455,
      -0.04164351150393486,
      -0.08841408044099808,
      0.07433896511793137,
      -0.059832893311977386,
      0.06624598056077957,
      -0.044045381247997284,
      0.08760949224233627,
      0.06110907346010208,
      0.02147947996854782,
      0.02257876843214035,
      0.0034070461988449097,
      -0.035657111555337906,
      0.050999678671360016,
      0.017093822360038757,
      -0.05305292829871178,
      0.025544874370098114,
      -0.0061864107847213745,
      0.03044443577528,
      -0.07036305963993073,
      -0.024725355207920074,
      -0.04637451842427254,
      -0.049043022096157074,
      -0.07852207869291306,
      -0.04816966503858566,
      -0.0036498084664344788,
      0.04949066787958145,
      0.04466734081506729,
      -0.07418012619018555,
      0.055953480303287506,
      0.06129125505685806,
      0.04412921518087387,
      0.05066654831171036,
      0.002296529710292816,
      -0.047046732157468796,
      0.014259681105613708,
      -0.06507016718387604,
      0.06746689230203629,
      -0.02381701022386551,
      -0.058893539011478424,
      0.05873345583677292,
      0.0538623109459877,
      0.015813574194908142,
      -0.019700653851032257,
      0.07402054220438004,
      -0.023437462747097015,
      -0.07331214100122452,
      -0.06952424347400665,
      0.07191351801156998,
      -0.03781361132860184,
      -0.01736333966255188,
      0.01866897940635681,
      -0.09069381654262543,
      -0.06489965319633484,
      -0.06282881647348404,
      0.053255535662174225,
      -0.026073239743709564,
      -0.05117466300725937,
      -0.09016262739896774,
      0.02993197739124298,
      0.055922068655490875,
      0.03300461918115616,
      -0.06929522007703781,
      -0.052416861057281494,
      -0.05972473695874214,
      -0.032059408724308014,
      -0.08966116607189178,
      -0.04124719277024269,
      0.07972072809934616,
      0.015995115041732788,
      0.022353507578372955,
      -0.06923863291740417,
      -0.0864308625459671,
      0.035852544009685516,
      -0.003078445792198181,
      -0.06383288651704788,
      -0.05156353861093521,
      0.01217544823884964,
      0.06996133178472519,
      -0.018325060606002808,
      -0.03250237554311752,
      0.026112452149391174,
      0.0073770806193351746,
      0.09386663883924484,
      0.06729630380868912,
      0.05690415948629379,
      0.0034727901220321655,
      0.061450548470020294,
      -0.07544786483049393,
      0.015257038176059723,
      0.05087064951658249,
      0.03217046707868576,
      0.00697452574968338,
      0.05868835002183914,
      -0.020444050431251526,
      -0.08206299692392349,
      0.05907005816698074,
      -0.06278234720230103,
      0.07574313133955002,
      -0.07593801617622375,
      0.0830913856625557,
      -0.016433924436569214,
      0.02903619408607483,
      -0.05889293923974037,
      0.009011812508106232,
      -0.05663459002971649,
      -0.029983311891555786,
      -0.007909484207630157,
      0.05681570619344711,
      -0.022478856146335602,
      0.07889320701360703,
      0.04536706954240799,
      -0.07484907656908035,
      0.06697364896535873,
      0.0880727544426918,
      0.010812625288963318,
      0.008258812129497528,
      -0.05282602086663246,
      -0.06474125385284424,
      0.03151894360780716,
      0.009115904569625854,
      -0.008327051997184753,
      0.09097305685281754,
      -0.0294637531042099,
      0.0006726235151290894,
      -0.03884002938866615,
      0.06025735288858414,
      0.04729475826025009,
      -0.01432916522026062,
      -0.0900169163942337,
      -0.00732073187828064,
      0.08794189244508743,
      0.007012993097305298,
      -0.025766775012016296,
      -0.07664630562067032,
      -0.022044658660888672,
      0.05531343072652817,
      0.07768193632364273,
      0.07220371812582016,
      -0.00950843095779419,
      -0.016994789242744446,
      -0.07828349620103836,
      0.022174164652824402,
      0.019424133002758026,
      0.015065565705299377,
      -0.034452762454748154,
      0.03154078871011734,
      0.08802992850542068,
      -0.06735562533140182,
      0.06548767536878586,
      0.07342495769262314,
      -0.003181569278240204,
      0.044693924486637115,
      0.020382173359394073,
      0.06920402497053146,
      0.07225874811410904,
      0.04084823280572891,
      -0.08752413094043732,
      -0.06363451480865479,
      0.07090684026479721,
      -0.05222661793231964,
      -0.08598365634679794,
      0.09345262497663498,
      -0.019482456147670746,
      0.017177753150463104,
      -0.03599870949983597,
      -0.06607078015804291,
      0.06096390634775162,
      -0.09327221661806107,
      -0.035266950726509094,
      0.030573733150959015,
      0.058189697563648224,
      0.03412618488073349,
      0.06425424665212631,
      -0.06261762231588364,
      -0.0038279742002487183,
      0.07742201536893845,
      0.08845183998346329,
      -0.039044834673404694,
      -0.0893714502453804,
      0.0666736289858818,
      -0.0316774845123291,
      0.05761725455522537,
      -0.041285447776317596,
      0.05852646380662918,
      0.009773783385753632,
      -0.0002932548522949219,
      -0.04477199167013168,
      0.006740882992744446,
      -0.07774269580841064,
      -0.09325967729091644,
      0.06983093172311783,
      0.04251091927289963,
      0.04512006789445877,
      0.07954583317041397,
      0.07115299254655838,
      -0.00050373375415802,
      0.04901508241891861,
      0.017327919602394104,
      0.07134895771741867,
      0.08882565051317215,
      -0.026552431285381317,
      0.008291251957416534,
      -0.05224036052823067,
      0.08442630618810654,
      -0.0645456612110138,
      0.06306155771017075,
      0.0359131321310997,
      0.046464256942272186,
      0.03403710573911667,
      -0.08894096314907074,
      0.07542752474546432,
      0.08279063552618027,
      0.04839947074651718,
      -0.050182681530714035,
      -0.06959708034992218,
      -0.01094798743724823,
      -0.041807305067777634,
      0.08442648500204086,
      -0.032390713691711426,
      0.08246605843305588,
      0.004825808107852936,
      -0.049186721444129944,
      -0.07944674789905548,
      0.024871937930583954,
      0.02986377477645874,
      0.04271269589662552,
      0.07373640686273575,
      0.06661251932382584,
      -0.055131424218416214,
      0.012439705431461334,
      -0.03381812572479248,
      0.00046774744987487793,
      0.030851192772388458,
      0.08240842074155807,
      -0.061041172593832016,
      0.06404823809862137,
      0.036264948546886444,
      -0.011622555553913116,
      -0.012417450547218323,
      0.01251760870218277,
      -0.014095664024353027,
      0.030617840588092804,
      0.024135641753673553,
      -0.046694424003362656,
      -0.002634868025779724,
      0.008793279528617859,
      0.0718131735920906,
      0.07606834918260574,
      -0.09392138570547104,
      0.04839102178812027,
      -0.04463380202651024,
      0.04281822592020035,
      0.08898813277482986,
      -0.02198171615600586,
      -0.06556475162506104,
      0.0014936774969100952,
      -0.04507993161678314,
      -0.0526701919734478,
      -0.05948462709784508,
      0.0018397271633148193,
      0.003926597535610199,
      0.004992716014385223,
      0.04622256010770798,
      0.07338773459196091,
      -0.06421186029911041,
      -0.06197674572467804,
      -0.05655479431152344,
      0.07074622064828873,
      0.023956619203090668,
      -0.06758401542901993,
      -0.06068210303783417,
      0.09159401804208755,
      0.030926547944545746,
      0.023199334740638733,
      0.045787639915943146,
      -0.0017463043332099915,
      0.010808154940605164,
      -0.07257550954818726,
      -0.016453489661216736,
      -0.043443094938993454,
      -0.0333855003118515,
      0.06689902395009995,
      -0.014345526695251465,
      -0.06678199768066406,
      0.08556915074586868,
      -0.04984395578503609,
      0.046618200838565826,
      -0.09060926735401154,
      -5.43743371963501e-05,
      0.008685186505317688,
      0.048723287880420685,
      -0.07171577960252762,
      -0.05062241479754448,
      -0.05237828940153122,
      -0.034791115671396255,
      -0.04410763829946518,
      0.028161458671092987,
      0.0370112881064415,
      0.03136458247900009,
      0.08295898884534836,
      0.06117095798254013,
      0.09208390861749649,
      0.00298222154378891,
      0.08359507471323013,
      0.031061388552188873,
      -0.044837549328804016,
      0.08572783321142197,
      -0.005898632109165192,
      0.058716095983982086,
      -0.058754175901412964,
      -0.09429798275232315,
      -0.03375241905450821,
      0.06267286092042923,
      0.013116709887981415,
      0.015403807163238525,
      0.009700596332550049,
      -0.07684772461652756,
      0.03767295926809311,
      -0.08533314615488052,
      0.05715664476156235,
      -0.03351660445332527,
      0.054840512573719025,
      0.004977598786354065,
      0.09302841871976852,
      -0.01930985599756241,
      -0.014004454016685486,
      -0.06542897969484329,
      0.08491209894418716,
      -0.06669442355632782,
      -0.036900926381349564,
      -0.06050589680671692,
      -0.0669761449098587,
      -0.08953982591629028,
      0.06902674585580826,
      0.05093915015459061,
      0.07439062744379044,
      -0.06200991943478584,
      0.011594913899898529,
      0.08817078918218613,
      0.09218517690896988,
      0.08413020521402359,
      0.0020362436771392822,
      -0.03366111218929291,
      -0.07375701516866684,
      0.059959717094898224,
      -0.03320593759417534,
      -0.02676503360271454,
      0.08664824813604355,
      -0.009375534951686859,
      0.05780947953462601,
      -0.06453923881053925,
      0.03929365426301956,
      -0.09025690704584122,
      0.06352243572473526,
      0.0799943134188652,
      0.08198977261781693,
      -0.002077437937259674,
      -0.026603884994983673,
      0.03194127231836319,
      0.04711899906396866,
      -0.028690136969089508,
      -0.060279443860054016,
      0.044850580394268036,
      0.02692657709121704,
      -0.029676519334316254,
      0.06772734969854355,
      0.024221673607826233,
      0.06991492956876755,
      0.003977812826633453,
      -0.06760278344154358,
      -0.04123838245868683,
      0.0437781885266304,
      -0.06419379264116287,
      0.05166039615869522,
      -0.0050935521721839905,
      0.07909245043992996,
      -0.01158837229013443,
      0.0044826939702034,
      -0.04623464122414589,
      0.09408224374055862,
      -0.00024283677339553833,
      -0.0737353041768074,
      0.041013531386852264,
      0.07834520190954208,
      -0.037876229733228683,
      0.04731760174036026,
      -0.091181181371212,
      -0.05841967463493347,
      0.027078382670879364,
      -0.05785499885678291,
      0.010500237345695496,
      0.004459649324417114,
      -0.09330421686172485,
      -0.04646763950586319,
      -0.020672746002674103,
      -0.08880381286144257,
      0.0496513769030571,
      -0.04645111411809921,
      0.01417117565870285,
      -0.08467895537614822,
      0.06046963483095169,
      -0.003606848418712616,
      -0.016504861414432526,
      0.0016710013151168823,
      -0.010311231017112732,
      0.06195443123579025,
      0.0032714903354644775,
      -0.05694581940770149,
      -0.012058563530445099,
      -0.06647772341966629,
      0.023368075489997864,
      0.055803634226322174,
      0.036417119204998016,
      0.022473648190498352,
      0.061644546687603,
      0.0074790120124816895,
      -0.05448465421795845,
      0.09182371944189072,
      -0.03351200744509697,
      -0.08608151227235794,
      0.02049741894006729,
      -0.040023088455200195,
      -0.031858161091804504,
      0.03216230124235153,
      -0.016576021909713745,
      0.05432627350091934,
      -0.024373851716518402,
      -0.037411320954561234,
      0.09144379943609238,
      0.03405497223138809,
      0.07551588863134384,
      -0.00933334231376648,
      0.020442217588424683,
      -0.025368578732013702,
      0.07348289340734482,
      -0.04933343827724457,
      -0.014025025069713593,
      0.0657351091504097,
      0.06433174759149551,
      -0.05290519818663597,
      -0.06411007791757584,
      0.002148240804672241,
      0.09200017899274826,
      0.05258936434984207,
      -0.01609821617603302,
      0.04889658838510513,
      -0.055997978895902634,
      -0.07180822640657425,
      0.03256750851869583,
      0.0895204171538353,
      -0.021099627017974854,
      -0.0041758716106414795,
      -0.08268962800502777,
      -0.03550249710679054,
      -0.04475779831409454,
      0.0025801807641983032,
      -0.022665739059448242,
      0.05048849433660507,
      -0.07653647661209106,
      0.07754933089017868,
      -0.06959955394268036,
      0.07301653176546097,
      0.08618446439504623,
      -0.09152021259069443,
      -0.052487462759017944,
      0.03589276224374771,
      -0.05706436559557915,
      0.04824460297822952,
      0.0256902277469635,
      0.04323943704366684,
      -0.07484844326972961,
      -0.09182082116603851,
      -0.054318588227033615,
      0.08530687540769577,
      -0.08983679860830307,
      -0.018188484013080597,
      -0.08117606490850449,
      -0.003747299313545227,
      0.051591165363788605,
      -0.06446471065282822,
      -0.08607311546802521,
      0.0021607056260108948,
      0.017644688487052917,
      -0.00675307959318161,
      0.03340931981801987,
      0.060770951211452484,
      0.07912582904100418,
      -0.08082452416419983,
      0.003003165125846863,
      0.052656494081020355,
      0.054916732013225555,
      -0.03405359387397766,
      0.01700907200574875,
      -0.07883128523826599,
      0.06552261859178543,
      -0.0435761958360672,
      -0.006515122950077057,
      -0.04200034216046333,
      0.03385064750909805,
      0.01715043932199478,
      -0.06604818999767303,
      -0.07404619455337524,
      -0.05108333379030228,
      -0.053201526403427124,
      0.004768930375576019,
      0.05086299031972885,
      -0.032353732734918594,
      -0.014389455318450928,
      0.03616506606340408,
      0.0841924175620079,
      -0.0420219786465168,
      -0.05564397946000099,
      0.06542397290468216,
      0.04956866055727005,
      -0.007473886013031006,
      -0.08672493696212769,
      -0.08710131794214249,
      0.06639345735311508,
      -0.011169858276844025,
      -0.028796762228012085,
      -0.06562764942646027,
      0.05781158059835434,
      -0.025590725243091583,
      -0.07044173032045364,
      -0.07366564869880676,
      0.041174061596393585,
      0.09259838610887527,
      -0.05669441446661949,
      0.04636368900537491,
      -0.020904675126075745,
      0.06587759405374527,
      -0.07899221777915955,
      -0.04644694924354553,
      -0.08719731122255325,
      -0.08309540897607803,
      0.028915151953697205,
      -0.005734995007514954,
      0.03130044788122177,
      0.007169313728809357,
      -0.08174940198659897,
      -0.019982464611530304,
      0.0629236027598381,
      -0.05298769846558571,
      -0.02329505980014801,
      0.06382855027914047,
      -0.03433389216661453,
      -0.00787266343832016,
      0.09153980761766434,
      -0.03431185707449913,
      -0.08739975094795227,
      0.04686567932367325,
      0.022807374596595764,
      0.07041045278310776,
      -0.08977408707141876,
      -0.05079110711812973,
      -0.08195571601390839,
      0.06359372287988663,
      -0.012517541646957397,
      -0.08766835927963257,
      -0.033369358628988266,
      0.0007687583565711975,
      -0.08437485992908478,
      -0.0035502761602401733,
      0.07515417784452438,
      -0.013292096555233002,
      -0.07862742245197296,
      -0.07173720002174377,
      0.06409966200590134,
      0.051870666444301605,
      -0.08347707986831665,
      -0.020491965115070343,
      -0.040166549384593964,
      -0.05290384590625763,
      0.013508997857570648,
      0.046605758368968964,
      0.08636269718408585,
      -0.05920569226145744,
      -0.03159630298614502,
      0.09225933998823166,
      -0.06752869486808777,
      -0.0026310384273529053,
      0.03042837232351303,
      0.01803913712501526,
      0.07410211116075516,
      0.019991926848888397,
      -0.00013694912195205688,
      0.027568243443965912,
      0.02209784835577011,
      -0.008273802697658539,
      0.07310090214014053,
      -0.048209596425294876,
      0.07545389980077744,
      -0.030639871954917908,
      0.011188358068466187,
      -0.0627724677324295,
      0.04044149070978165,
      -0.0899055078625679,
      0.0006657242774963379,
      0.02476050704717636,
      -0.02094922959804535,
      0.018473118543624878,
      0.07567138224840164,
      0.07876207679510117,
      -0.010705888271331787,
      0.03238397091627121,
      0.010637454688549042,
      -0.04263974353671074,
      0.06708318740129471,
      -0.07917512208223343,
      0.06667260080575943,
      0.07368350774049759,
      0.08322345465421677,
      0.07801156491041183,
      -0.06760099530220032,
      -0.08643372356891632,
      0.030158258974552155,
      -0.07230035960674286,
      0.04143831878900528,
      0.0364927276968956,
      -0.0825086385011673,
      0.014132380485534668,
      -0.04907369613647461,
      0.043649978935718536,
      -0.07145369052886963,
      0.07486142963171005,
      0.004498571157455444,
      0.023333854973316193,
      -0.06472864001989365,
      0.05768094211816788,
      -0.04845115542411804,
      -0.0018583610653877258,
      0.08925861865282059,
      0.08794061094522476,
      0.03083101660013199,
      -0.011276982724666595,
      -0.026741862297058105,
      -0.03508496657013893,
      0.048246465623378754,
      0.01054190844297409,
      0.08967211097478867,
      -0.07818940281867981,
      -0.0413469597697258,
      0.08352532237768173,
      -0.05985104292631149,
      0.05587451905012131,
      -0.0902780070900917,
      -0.022974669933319092,
      0.011619731783866882,
      -0.06656701862812042,
      0.032138608396053314,
      -0.050021130591630936,
      -0.03202920779585838,
      -0.030341580510139465,
      0.07752690464258194,
      -0.09239879995584488,
      -0.04642390087246895,
      -0.002863846719264984,
      -0.019203566014766693,
      0.045679621398448944,
      0.08253607898950577,
      -0.07968077808618546,
      0.013888321816921234,
      -0.06094130501151085,
      -0.0943121537566185,
      0.032728470861911774,
      0.05462384968996048,
      -0.08412420749664307,
      -0.09000979363918304,
      0.027204111218452454,
      0.07921756058931351,
      -0.05812927335500717,
      -0.062138184905052185,
      0.014260344207286835,
      0.06463474780321121,
      0.04146445542573929,
      -0.026884257793426514,
      -0.005941607058048248,
      -0.056475672870874405,
      -0.05851468816399574,
      0.0015316307544708252,
      0.07818963378667831,
      -0.05439617484807968,
      -0.06873294711112976,
      -0.008280664682388306,
      0.047818876802921295,
      0.04866952449083328,
      0.007627218961715698,
      -0.05695522576570511,
      -0.06923738867044449,
      -0.001100189983844757,
      -0.039213877171278,
      0.08928243070840836,
      -0.010385431349277496,
      -0.04857810586690903,
      0.0543232187628746,
      -0.07769061625003815,
      -0.08397190272808075,
      -0.02630615234375,
      0.0779266431927681,
      0.09063921123743057,
      0.028686724603176117,
      -0.042724609375,
      -0.0650545135140419,
      -0.01887556165456772,
      0.08554936200380325,
      0.05560804158449173,
      -0.028688155114650726,
      0.06654836982488632,
      -0.055813223123550415,
      0.08661895245313644,
      0.017816007137298584,
      -0.0020700395107269287,
      0.007359996438026428,
      0.03494832664728165,
      0.0822739228606224,
      -0.09092806279659271,
      0.08528707176446915,
      -0.07201234996318817,
      -0.08433268219232559,
      -0.06698665022850037,
      -0.01737547665834427,
      0.05846438556909561,
      -0.01630610227584839,
      -0.0032553374767303467,
      0.018495969474315643,
      0.004901103675365448,
      -0.01608816534280777,
      -0.04992399737238884,
      0.021016523241996765,
      -0.011950142681598663,
      -0.002416566014289856,
      -0.012681469321250916,
      0.09108082205057144,
      0.03116663545370102,
      -0.023198559880256653,
      0.06117177754640579,
      0.0917389914393425,
      0.06146930903196335,
      -0.01922343671321869,
      0.029893040657043457,
      0.09168519824743271,
      -0.08327143639326096,
      0.010856181383132935,
      0.0010029450058937073,
      0.0012653768062591553,
      -0.01933681219816208,
      0.028852902352809906,
      0.02376571297645569,
      0.0440598800778389,
      0.00972948968410492,
      0.09392432123422623,
      -0.07066047936677933,
      0.09316013008356094,
      -0.020047232508659363,
      0.08788572996854782,
      -0.05469633266329765,
      0.08608093112707138,
      -0.040945783257484436,
      0.08515221625566483,
      -0.011583872139453888,
      0.004356786608695984,
      0.04001050442457199,
      0.015441462397575378,
      -0.07226035743951797,
      -0.0527477003633976,
      0.05610845237970352,
      0.011323206126689911,
      0.02665301412343979,
      0.0465242937207222,
      0.048677898943424225,
      -0.07172614336013794,
      -0.058091696351766586,
      -0.0940256416797638,
      -0.0024299025535583496,
      0.02260122448205948,
      0.023518621921539307,
      -0.08573870360851288,
      -0.030184537172317505,
      0.024977117776870728,
      0.08379632979631424,
      -0.08943602442741394,
      -0.05987325310707092,
      -0.06619889289140701,
      0.03429367393255234,
      -0.08881254494190216,
      0.024395763874053955,
      0.016345418989658356,
      -0.06837023794651031,
      -0.004734821617603302,
      0.07815928012132645,
      0.021392792463302612,
      -0.017782844603061676,
      0.09038081020116806,
      0.03506762534379959,
      0.06800868362188339,
      -0.041117630898952484,
      0.00902578979730606,
      0.011113546788692474,
      -0.08354423195123672,
      -0.017552435398101807,
      0.08710931986570358,
      0.08726730197668076,
      0.05526687949895859,
      -0.03539777547121048,
      -0.014183439314365387,
      0.04864528030157089,
      0.07126093655824661,
      0.07811491936445236,
      -0.08460894972085953,
      0.06671620160341263,
      0.04765615612268448,
      0.030646376311779022,
      0.04650904983282089,
      0.07682826370000839,
      0.06366903334856033,
      -0.06751079112291336,
      -0.05317708104848862,
      0.02389412373304367,
      0.025705181062221527,
      -0.07860724627971649,
      -0.0884774848818779,
      -0.017397820949554443,
      0.07756400853395462,
      -0.05965545028448105,
      0.08736152201890945,
      0.004669912159442902,
      -0.08746989071369171,
      -0.07012318819761276,
      -0.04866776615381241,
      0.011826537549495697,
      -0.09125655144453049,
      0.01950831711292267,
      0.034917958080768585,
      0.09265033155679703,
      -0.03357647359371185,
      -0.017892464995384216,
      -0.07065171748399734,
      0.04180074483156204,
      0.01396479457616806,
      0.011156558990478516,
      0.06475352495908737,
      -0.07442030310630798,
      -0.011456727981567383,
      -0.07042442262172699,
      0.02432727813720703,
      0.0259549543261528,
      0.08022292703390121,
      0.05045362561941147,
      0.043274037539958954,
      -0.058593593537807465,
      -0.02628660947084427,
      0.0372101292014122,
      0.0663614496588707,
      0.060301266610622406,
      0.08056021481752396,
      0.014098487794399261,
      -0.02797902375459671,
      -0.003777638077735901,
      -0.00019396841526031494,
      -0.04332207143306732,
      0.022454626858234406,
      0.022266916930675507,
      0.009641453623771667,
      0.05769873410463333,
      -0.07162610441446304,
      -0.07234818488359451,
      0.0788651630282402,
      -0.020814239978790283,
      -0.04783587157726288,
      0.023518040776252747,
      -0.025920480489730835,
      0.007466666400432587,
      -0.09394711256027222,
      0.0015201494097709656,
      -0.07047288119792938,
      0.0828377977013588,
      -0.08216994255781174,
      0.08742614835500717,
      0.009828798472881317,
      0.07218942791223526,
      -0.03978936746716499,
      -0.0022229477763175964,
      0.024009354412555695,
      0.09265021234750748,
      -0.08682366460561752,
      0.06261976808309555,
      -0.07561516761779785,
      -7.916241884231567e-05,
      -0.08384563028812408,
      -0.09410905838012695,
      -0.020832493901252747,
      0.09378200024366379,
      -0.08298467099666595,
      -0.03213933855295181,
      -0.05161581560969353,
      -0.07741925120353699,
      0.047391586005687714,
      0.053862087428569794,
      -0.04704772308468819,
      0.041153497993946075,
      -0.0086141899228096,
      -0.060003817081451416,
      0.0418446883559227,
      -0.07115520536899567,
      -0.04498691484332085,
      0.05157829076051712,
      0.03710251301527023,
      0.08453092724084854,
      -0.06157052516937256,
      0.027965925633907318,
      -0.05015550181269646,
      0.0008239522576332092,
      0.004728786647319794,
      0.0869346633553505,
      0.020897269248962402,
      -0.08132795244455338,
      -0.09266677498817444,
      -0.03124839812517166,
      0.0015812963247299194,
      0.03446628898382187,
      0.02477632462978363,
      -0.07045641541481018,
      0.09285912662744522,
      -0.0800008699297905,
      -0.00843731313943863,
      0.019265688955783844,
      -0.05201175436377525,
      -0.004949495196342468,
      0.025549016892910004,
      -0.035872336477041245,
      0.0556989386677742,
      0.06159728020429611,
      -0.09410260617733002,
      -0.06307925283908844,
      0.07771728187799454,
      0.06457448750734329,
      -0.021138839423656464,
      -0.08522069454193115,
      0.028217248618602753,
      0.0806080773472786,
      0.05475657433271408,
      -0.013003997504711151,
      0.024733394384384155,
      -0.06216715648770332,
      0.08711766451597214,
      -0.07842513173818588,
      -0.018232300877571106,
      0.017618216574192047,
      0.062088705599308014,
      0.04906446486711502,
      -0.015084750950336456,
      0.07110787183046341,
      -0.08590464293956757,
      -0.022418327629566193,
      -0.09212172031402588,
      -0.0440216027200222,
      0.0025774016976356506,
      0.041015200316905975,
      -0.050791431218385696,
      0.007028475403785706,
      0.0555616095662117,
      0.05207519978284836,
      0.012824006378650665,
      -0.07973591238260269,
      -0.019558027386665344,
      -0.07779981940984726,
      -0.0315028578042984,
      -0.06321270018815994,
      -0.02116360515356064,
      -0.023620344698429108,
      0.07617563754320145,
      0.08284617215394974,
      0.0058548226952552795,
      -0.024835258722305298,
      0.05791214853525162,
      -0.012473970651626587,
      -0.08889146894216537,
      -0.09443147480487823,
      0.04485701769590378,
      -0.04783080145716667,
      -0.0016186684370040894,
      -0.021270886063575745,
      0.04278206080198288,
      -0.050727564841508865,
      0.061574049293994904,
      -0.05827522277832031,
      0.03608318418264389,
      -0.090826615691185,
      -0.08777371048927307,
      -0.005493909120559692,
      0.05218430608510971,
      0.054437167942523956,
      0.06483883410692215,
      0.054045774042606354,
      -0.010755032300949097,
      -0.01493760198354721,
      -0.0001774430274963379,
      0.012524224817752838,
      -0.08843664079904556,
      -0.04505365341901779,
      -0.03771325945854187,
      -0.010444395244121552,
      0.0590294674038887,
      0.04384056478738785,
      -0.06058260798454285,
      0.050168924033641815,
      -0.059924934059381485,
      -0.05073340982198715,
      -0.04312313720583916,
      0.002432815730571747,
      -0.01617913693189621,
      0.0898365005850792,
      -0.07451030611991882,
      -0.08052090555429459,
      0.0868956670165062,
      -0.04192369803786278,
      0.08529707044363022,
      -0.041608795523643494,
      0.0644896849989891,
      -0.08609045296907425,
      -0.05650155991315842,
      0.06031506508588791,
      0.06118524819612503,
      0.03914772719144821,
      -0.04532678797841072,
      -0.03657148405909538,
      -0.017229780554771423,
      0.016575053334236145,
      -0.06642457097768784,
      -0.05254742503166199,
      0.02823995053768158,
      0.019685395061969757,
      -0.041888680309057236,
      -0.025574147701263428,
      0.026096075773239136,
      -0.08998209238052368,
      -0.004675000905990601,
      -0.021118372678756714,
      -0.036099206656217575,
      0.03905338793992996,
      0.09308221191167831,
      -0.08397210389375687,
      -0.012352757155895233,
      0.025166012346744537,
      -0.07043866813182831,
      0.05200088769197464,
      0.05960672348737717,
      -0.029786042869091034,
      0.015248104929924011,
      -0.043558113276958466,
      0.00450771301984787,
      -0.03820367902517319,
      0.039455659687519073,
      -0.07277712970972061,
      -0.08533835411071777,
      0.03916362673044205,
      -0.0700468122959137,
      -0.03981608524918556,
      0.0760679766535759,
      0.09160063415765762,
      0.05642276257276535,
      -0.012618102133274078,
      0.04291284829378128,
      -0.002465948462486267,
      -0.06933363527059555,
      0.055116020143032074,
      0.03253430873155594,
      -0.029546797275543213,
      0.09065429121255875,
      0.05731586366891861,
      -0.015572287142276764,
      0.027893908321857452,
      0.059250764548778534,
      0.09128009527921677,
      0.028067253530025482,
      -0.00941573828458786,
      0.035396136343479156,
      0.004883073270320892,
      -0.03752259910106659,
      0.04187002032995224,
      -0.05008409544825554,
      -0.053455647081136703,
      0.009456411004066467,
      0.036978669464588165,
      -0.013959512114524841,
      -0.03481247276067734,
      -0.05532507970929146,
      -0.019837573170661926,
      0.06874612718820572,
      0.06511992961168289,
      -0.04882579296827316,
      -0.04188260808587074,
      0.04962102323770523,
      0.0685250535607338,
      -0.014234401285648346,
      0.012671425938606262,
      0.058753930032253265,
      -0.048798952251672745,
      0.08516337722539902,
      -0.03433116525411606,
      0.03325469046831131,
      -0.030268296599388123,
      0.02737393230199814,
      0.0346175953745842,
      -0.07977993786334991,
      -0.028643153607845306,
      -0.0344444140791893,
      -0.04087040573358536,
      0.0654524490237236,
      -0.06869962811470032,
      -0.06779967248439789,
      -0.0812084749341011,
      -0.08270218968391418,
      0.05317065864801407,
      -0.06525073945522308,
      0.08479917794466019,
      0.01499766856431961,
      -0.04624779522418976,
      0.02414286881685257,
      0.04367478936910629,
      -0.04242395609617233,
      -0.07822038233280182,
      0.03166239708662033,
      0.08438984304666519,
      0.005647294223308563,
      0.062700055539608,
      0.040386371314525604,
      0.08665167540311813,
      0.017793171107769012,
      -0.0004751235246658325,
      -0.001280277967453003,
      -0.018333740532398224,
      0.0319255068898201,
      0.006455227732658386,
      -0.023939289152622223,
      -0.014438271522521973,
      -0.003752581775188446,
      0.017159394919872284,
      0.09293020516633987,
      0.01697390526533127,
      0.011198177933692932,
      -0.07621879875659943,
      -0.0783165693283081,
      -0.038327813148498535,
      0.0641203299164772,
      -0.0018818825483322144,
      -0.05107320845127106,
      -0.029955893754959106,
      0.09436803311109543,
      0.004730939865112305,
      -0.03893949091434479,
      0.02829587459564209,
      0.0072297826409339905,
      -0.001678466796875,
      -0.030489876866340637,
      0.06915106624364853,
      -0.07946804165840149,
      0.0181313157081604,
      0.06232853978872299,
      -0.08422411978244781,
      0.05696157366037369,
      0.04790187627077103,
      -0.06791777908802032,
      -0.06017138436436653,
      -0.007397867739200592,
      -0.0005074441432952881,
      -0.06650049984455109,
      0.04798971861600876,
      -0.0866873562335968,
      0.07360170036554337,
      -0.0643874779343605,
      -0.05735297501087189,
      -0.023681163787841797,
      -0.012392677366733551,
      -0.01172153651714325,
      -0.07414507865905762,
      -0.06159469857811928,
      -0.009968742728233337,
      -0.06440356373786926,
      -0.035603854805231094,
      -0.041814178228378296,
      -0.06397704780101776,
      0.03525780886411667,
      -0.001725703477859497,
      -0.011023640632629395,
      0.031236879527568817,
      -0.0904839038848877,
      0.0182533860206604,
      -0.0739811509847641,
      -0.03445587307214737,
      0.03664008527994156,
      0.07486779242753983,
      -0.07569210231304169,
      0.04247588664293289,
      0.04347490519285202,
      0.043534524738788605,
      0.011078707873821259,
      -0.020661436021327972,
      0.07337415963411331,
      0.019295282661914825,
      -0.019101038575172424,
      0.007271468639373779,
      -0.08055276423692703,
      0.08814900368452072,
      -0.04323645308613777,
      -0.00398910790681839,
      0.05315191298723221,
      -0.021228186786174774,
      -0.03096359223127365,
      -0.037540048360824585,
      -0.013317570090293884,
      -0.07744060456752777,
      0.0645034983754158,
      0.05104721337556839,
      -0.08108864724636078,
      0.05161110311746597,
      0.06255955249071121,
      0.03164238482713699,
      -0.06572113186120987,
      -0.08560710400342941,
      -0.0502496138215065,
      -0.07867950946092606,
      -0.0039017200469970703,
      -0.0731629729270935,
      0.034947268664836884,
      -0.08115620911121368,
      0.006022989749908447,
      0.016244560480117798,
      -0.06474871188402176,
      0.07570571452379227,
      -0.015024878084659576,
      0.07982201129198074,
      -0.03619471937417984,
      -0.06411950290203094,
      0.036059312522411346,
      0.08050135523080826,
      0.016993649303913116,
      -0.048671655356884,
      0.028529055416584015,
      0.010508917272090912,
      -0.0564948208630085,
      -0.03797827288508415,
      0.07915133982896805,
      0.048118315637111664,
      -0.053350821137428284,
      0.09206902235746384,
      -0.07714221626520157,
      -0.041743967682123184,
      -0.09407034516334534,
      0.015594840049743652,
      0.02794739603996277,
      0.006118506193161011,
      0.08448565751314163,
      0.03692466765642166,
      0.011917568743228912,
      0.06212223321199417,
      0.04902318865060806,
      -0.01252477616071701,
      0.013220690190792084,
      -0.02648211270570755,
      0.019453398883342743,
      -0.07305144518613815,
      -0.08735743910074234,
      -0.0021862834692001343,
      0.002451464533805847,
      -0.0723823830485344,
      0.0328647717833519,
      -0.08885220438241959,
      0.050642527639865875,
      0.06274304538965225,
      0.02518633008003235,
      0.04167746752500534,
      0.013798587024211884,
      0.06033977121114731,
      0.07720746845006943,
      -0.03231159225106239,
      0.0344439372420311,
      -0.04876387491822243,
      0.06847023218870163,
      0.04829063266515732,
      -0.03807810693979263,
      -0.06009959802031517,
      0.018450960516929626,
      0.02141200751066208,
      -0.0052824243903160095,
      0.010482989251613617,
      -0.01146920770406723,
      -0.0358283594250679,
      0.05263718217611313,
      0.09426959604024887,
      0.09369378536939621,
      -0.07531063258647919,
      0.09193605929613113,
      0.03920546919107437,
      -0.03829623758792877,
      -6.4067542552948e-05,
      -0.01855473965406418,
      -0.04200194031000137,
      -0.004916861653327942,
      -0.033704087138175964,
      0.05304286628961563,
      -0.09160488843917847,
      0.04488203674554825,
      -0.05264290049672127,
      -0.08606738597154617,
      0.059730418026447296,
      -0.0318080335855484,
      0.06164183467626572,
      -0.07249636948108673,
      -0.032930031418800354,
      -0.09185416251420975,
      0.033082641661167145,
      0.04027528315782547,
      -0.08725019544363022,
      -0.048211973160505295,
      -0.03341634199023247,
      -0.08916991949081421,
      0.04944101721048355,
      -0.03672176972031593,
      -0.08209606260061264,
      -0.042582012712955475,
      0.07755688577890396,
      0.02295052260160446,
      -0.05708584561944008,
      0.050989843904972076,
      -0.03095339983701706,
      0.04419753700494766,
      0.08895749598741531,
      0.08514737337827682,
      -0.009401880204677582,
      -0.011640839278697968,
      0.09007122367620468,
      0.06062697619199753,
      -0.09406305104494095,
      -0.0528036393225193,
      -0.002265743911266327,
      -0.05774839594960213,
      -0.030549556016921997,
      0.020031385123729706,
      0.03382434695959091,
      -0.006555370986461639,
      0.07007040828466415,
      0.004478044807910919,
      -0.04975317791104317,
      -0.06534533202648163,
      0.026081688702106476,
      -0.09278199821710587,
      0.021457955241203308,
      -0.025470875203609467,
      0.02653557062149048,
      0.011203005909919739,
      0.021117359399795532,
      0.0926312729716301,
      0.0661865696310997,
      0.04521463066339493,
      0.08822541683912277,
      0.030245035886764526,
      0.07273956388235092,
      -0.07694387435913086,
      0.0915866419672966,
      0.005954369902610779,
      -0.0780329704284668,
      0.06829699128866196,
      0.07583045214414597,
      -0.07819002121686935,
      0.0820995643734932,
      -0.07486404478549957,
      -0.028275668621063232,
      0.05271347612142563,
      -0.019277699291706085,
      0.033648885786533356,
      -0.07656241208314896,
      -0.042516130954027176,
      0.0484042689204216,
      0.06924956291913986,
      0.06637021154165268,
      0.030674122273921967,
      -0.08901216834783554,
      0.02095603197813034,
      -0.08204666525125504,
      0.035638995468616486,
      0.0724712386727333,
      0.01485934853553772,
      0.07961336523294449,
      -0.0289531871676445,
      -0.04466700926423073,
      0.05524403601884842,
      -0.022399313747882843,
      -0.09390120953321457,
      -0.052235428243875504,
      0.025946855545043945,
      0.059901900589466095,
      -0.038920849561691284,
      0.005328096449375153,
      0.05909845978021622,
      0.06423941999673843,
      0.00948747992515564,
      0.08718513697385788,
      -0.048255812376737595,
